digraph Tree {
node [shape=box] ;
0 [label="SL <= 5.45\ngini = 0.665\nsamples = 80\nvalue = [42, 49, 44]\nclass = Versicolor"] ;
1 [label="PL <= 2.35\ngini = 0.403\nsamples = 31\nvalue = [38, 10, 3]\nclass = Setosa"] ;
0 -> 1 [labeldistance=2.5, labelangle=45, headlabel="True"] ;
2 [label="gini = 0.0\nsamples = 25\nvalue = [38, 0, 0]\nclass = Setosa"] ;
1 -> 2 ;
3 [label="PL <= 4.2\ngini = 0.355\nsamples = 6\nvalue = [0, 10, 3]\nclass = Versicolor"] ;
1 -> 3 ;
4 [label="gini = 0.0\nsamples = 4\nvalue = [0, 9, 0]\nclass = Versicolor"] ;
3 -> 4 ;
5 [label="SL <= 5.15\ngini = 0.375\nsamples = 2\nvalue = [0, 1, 3]\nclass = Virginica"] ;
3 -> 5 ;
6 [label="gini = 0.0\nsamples = 1\nvalue = [0, 0, 3]\nclass = Virginica"] ;
5 -> 6 ;
7 [label="gini = 0.0\nsamples = 1\nvalue = [0, 1, 0]\nclass = Versicolor"] ;
5 -> 7 ;
8 [label="PL <= 4.95\ngini = 0.544\nsamples = 49\nvalue = [4, 39, 41]\nclass = Virginica"] ;
0 -> 8 [labeldistance=2.5, labelangle=-45, headlabel="False"] ;
9 [label="SW <= 3.6\ngini = 0.239\nsamples = 26\nvalue = [4, 39, 2]\nclass = Versicolor"] ;
8 -> 9 ;
10 [label="PL <= 4.75\ngini = 0.093\nsamples = 23\nvalue = [0, 39, 2]\nclass = Versicolor"] ;
9 -> 10 ;
11 [label="gini = 0.0\nsamples = 21\nvalue = [0, 36, 0]\nclass = Versicolor"] ;
10 -> 11 ;
12 [label="SL <= 6.55\ngini = 0.48\nsamples = 2\nvalue = [0, 3, 2]\nclass = Versicolor"] ;
10 -> 12 ;
13 [label="gini = 0.0\nsamples = 1\nvalue = [0, 0, 2]\nclass = Virginica"] ;
12 -> 13 ;
14 [label="gini = 0.0\nsamples = 1\nvalue = [0, 3, 0]\nclass = Versicolor"] ;
12 -> 14 ;
15 [label="gini = 0.0\nsamples = 3\nvalue = [4, 0, 0]\nclass = Setosa"] ;
9 -> 15 ;
16 [label="gini = 0.0\nsamples = 23\nvalue = [0, 0, 39]\nclass = Virginica"] ;
8 -> 16 ;
}