digraph Tree {
node [shape=box] ;
0 [label="PL <= 2.6\ngini = 0.656\nsamples = 78\nvalue = [56, 42, 37]\nclass = Setosa"] ;
1 [label="gini = 0.0\nsamples = 29\nvalue = [56, 0, 0]\nclass = Setosa"] ;
0 -> 1 [labeldistance=2.5, labelangle=45, headlabel="True"] ;
2 [label="PW <= 1.75\ngini = 0.498\nsamples = 49\nvalue = [0, 42, 37]\nclass = Versicolor"] ;
0 -> 2 [labeldistance=2.5, labelangle=-45, headlabel="False"] ;
3 [label="PW <= 1.35\ngini = 0.124\nsamples = 27\nvalue = [0, 42, 3]\nclass = Versicolor"] ;
2 -> 3 ;
4 [label="gini = 0.0\nsamples = 16\nvalue = [0, 27, 0]\nclass = Versicolor"] ;
3 -> 4 ;
5 [label="SW <= 2.65\ngini = 0.278\nsamples = 11\nvalue = [0, 15, 3]\nclass = Versicolor"] ;
3 -> 5 ;
6 [label="gini = 0.0\nsamples = 1\nvalue = [0, 0, 1]\nclass = Virginica"] ;
5 -> 6 ;
7 [label="PL <= 5.05\ngini = 0.208\nsamples = 10\nvalue = [0, 15, 2]\nclass = Versicolor"] ;
5 -> 7 ;
8 [label="gini = 0.0\nsamples = 8\nvalue = [0, 14, 0]\nclass = Versicolor"] ;
7 -> 8 ;
9 [label="SW <= 2.75\ngini = 0.444\nsamples = 2\nvalue = [0, 1, 2]\nclass = Virginica"] ;
7 -> 9 ;
10 [label="gini = 0.0\nsamples = 1\nvalue = [0, 1, 0]\nclass = Versicolor"] ;
9 -> 10 ;
11 [label="gini = 0.0\nsamples = 1\nvalue = [0, 0, 2]\nclass = Virginica"] ;
9 -> 11 ;
12 [label="gini = 0.0\nsamples = 22\nvalue = [0, 0, 34]\nclass = Virginica"] ;
2 -> 12 ;
}